{"learner":{"attributes":{"best_iteration":"10","best_ntree_limit":"11","best_score":"0.22974969256235023","scikit_learn":"{\"n_estimators\": 20, \"objective\": \"reg:squarederror\", \"max_depth\": 4, \"max_leaves\": null, \"max_bin\": null, \"grow_policy\": null, \"learning_rate\": 0.3, \"verbosity\": null, \"booster\": null, \"tree_method\": null, \"gamma\": null, \"min_child_weight\": null, \"max_delta_step\": null, \"subsample\": 0.1, \"sampling_method\": null, \"colsample_bytree\": 0.7, \"colsample_bylevel\": null, \"colsample_bynode\": null, \"reg_alpha\": null, \"reg_lambda\": null, \"scale_pos_weight\": null, \"base_score\": null, \"missing\": NaN, \"num_parallel_tree\": null, \"random_state\": null, \"n_jobs\": null, \"monotone_constraints\": null, \"interaction_constraints\": null, \"importance_type\": null, \"gpu_id\": null, \"validate_parameters\": null, \"predictor\": null, \"enable_categorical\": false, \"feature_types\": null, \"max_cat_to_onehot\": null, \"max_cat_threshold\": null, \"eval_metric\": null, \"early_stopping_rounds\": 3, \"callbacks\": null, \"evals_result_\": {\"validation_0\": {\"rmse\": [0.4585006401010088, 0.3582074309084841, 0.29607484776595705, 0.2947166124236551, 0.26189690361104667, 0.250227626171947, 0.25024589547874415, 0.23658837259803303, 0.23276826581233404, 0.23081736064269803, 0.22974969256235023, 0.23196913696918198, 0.23218687764660328, 0.2313773201940774]}}, \"_mlflow_run_id\": \"14193a090c6e4085b91943ce1c1c144f\", \"_estimator_type\": \"regressor\"}"},"feature_names":["year","month","day_of_year","latitude","longitude"],"feature_types":["int","int","int","float","float"],"gradient_booster":{"model":{"gbtree_model_param":{"num_parallel_tree":"1","num_trees":"14","size_leaf_vector":"0"},"tree_info":[0,0,0,0,0,0,0,0,0,0,0,0,0,0],"trees":[{"base_weights":[-3.2528543E-1,-4.1262692E-1,-2.1137959E-1,-4.2110157E-1,-3.574888E-1,-4.073226E-1,-2.0662457E-1,-4.0657982E-1,-4.3579546E-1,-1.3688457E-1,-3.6223504E-1,-4.41645E-1,-2.1714766E-1,-1.979196E-1,-3.1463075E-1,-4.466864E-1,-3.9654717E-1,-4.526962E-1,-4.161012E-1,-3.6432245E-1,-4.2192736E-3,-2.2436939E-1,-1.702572E-1,-3.6408785E-1,-2.635952E-1],"categories":[],"categories_nodes":[],"categories_segments":[],"categories_sizes":[],"default_left":[1,1,1,1,1,1,1,1,1,0,1,0,0,1,1,0,0,0,0,0,0,0,0,0,0],"id":0,"left_children":[1,3,5,7,9,11,13,15,17,-1,19,-1,-1,21,23,-1,-1,-1,-1,-1,-1,-1,-1,-1,-1],"loss_changes":[4.5368347E1,1.057373E0,1.7652893E0,2.9974365E-1,3.179245E-1,2.043519E-1,1.7616959E0,2.811737E-1,1.7677307E-1,0E0,2.5479507E-1,0E0,0E0,1.2773361E0,2.6497078E-1,0E0,0E0,0E0,0E0,0E0,0E0,0E0,0E0,0E0,0E0],"parents":[2147483647,0,0,1,1,2,2,3,3,4,4,5,5,6,6,7,7,8,8,10,10,13,13,14,14],"right_children":[2,4,6,8,10,12,14,16,18,-1,20,-1,-1,22,24,-1,-1,-1,-1,-1,-1,-1,-1,-1,-1],"split_conditions":[2.0215E3,-9.172835E1,4.3537804E1,-9.4138565E1,-9.171631E1,-9.118813E1,-9.1290924E1,4.5074837E1,-9.3136444E1,-4.1065373E-2,4.9229668E1,-1.3249351E-1,-6.51443E-2,-9.417174E1,4.805478E1,-1.3400592E-1,-1.1896416E-1,-1.3580887E-1,-1.2483036E-1,-1.0929674E-1,-1.2657822E-3,-6.731082E-2,-5.107716E-2,-1.0922636E-1,-7.907856E-2],"split_indices":[0,4,3,4,4,4,4,3,4,0,3,0,0,4,3,0,0,0,0,0,0,0,0,0,0],"split_type":[0,0,0,0,0,0,0,0,0,0,0,0,0,0,0,0,0,0,0,0,0,0,0,0,0],"sum_hessian":[4.568E3,2.584E3,1.984E3,2.234E3,3.5E2,4.5E1,1.939E3,1.138E3,1.096E3,8E0,3.42E2,3.7E1,8E0,1.797E3,1.42E2,2.19E2,9.19E2,5.78E2,5.18E2,3.4E2,2E0,9.15E2,8.82E2,6.9E1,7.3E1],"tree_param":{"num_deleted":"0","num_feature":"5","num_nodes":"25","size_leaf_vector":"0"}},{"base_weights":[-2.1308854E-1,4.2498723E-1,-3.3200076E-1,5.1828814E-1,2.1812549E-1,-3.5572782E-1,5.4637843E-1,5.3355527E-1,4.5150256E-1,-1.9930287E-1,4.3692014E-1,-3.3320442E-1,-3.9649636E-1,2.2059388E-1,5.132157E-1,-3.013889E-1,-2.3460373E-2,1.6494964E-1,4.6265042E-1,-3.3635572E-1,-1.1443927E-1,-5.607673E-2,-4.059154E-1],"categories":[],"categories_nodes":[],"categories_segments":[],"categories_sizes":[],"default_left":[1,1,1,1,1,1,0,0,1,1,1,1,1,0,0,0,0,0,0,0,0,0,0],"id":1,"left_children":[1,3,5,7,9,11,-1,-1,13,15,17,19,21,-1,-1,-1,-1,-1,-1,-1,-1,-1,-1],"loss_changes":[3.3755725E2,1.3377914E1,7.832864E1,2.4954224E-1,2.0088589E1,3.2204285E0,0E0,0E0,1.2547989E0,1.3572099E0,9.313812E-1,1.5870667E0,4.126343E0,0E0,0E0,0E0,0E0,0E0,0E0,0E0,0E0,0E0,0E0],"parents":[2147483647,0,0,1,1,2,2,3,3,4,4,5,5,8,8,9,9,10,10,11,11,12,12],"right_children":[2,4,6,8,10,12,-1,-1,14,16,18,20,22,-1,-1,-1,-1,-1,-1,-1,-1,-1,-1],"split_conditions":[1.245E2,8.25E1,3.385E2,5.95E1,4.5913338E1,2.0215E3,1.6391353E-1,1.6006659E-1,4.5058983E1,4.495265E1,4.6255707E1,3.3E2,1.265E2,6.6178165E-2,1.5396473E-1,-9.041667E-2,-7.0381123E-3,4.9484894E-2,1.3879514E-1,-1.0090672E-1,-3.4331784E-2,-1.682302E-2,-1.2177463E-1],"split_indices":[2,2,2,2,3,0,0,0,3,3,3,2,2,0,0,0,0,0,0,0,0,0,0],"split_type":[0,0,0,0,0,0,0,0,0,0,0,0,0,0,0,0,0,0,0,0,0,0,0],"sum_hessian":[4.446E3,6.98E2,3.748E3,4.8E2,2.18E2,3.65E3,9.8E1,3.85E2,9.5E1,7.5E1,1.43E2,2.357E3,1.293E3,2.1E1,7.4E1,4.7E1,2.8E1,1.3E1,1.3E2,2.323E3,3.4E1,3.5E1,1.258E3],"tree_param":{"num_deleted":"0","num_feature":"5","num_nodes":"23","size_leaf_vector":"0"}},{"base_weights":[-1.6097423E-1,3.418998E-1,-2.3056E-1,-1.1782582E-1,3.455234E-1,-2.4550843E-1,3.688442E-1,9.2574656E-2,-1.935696E-1,3.554022E-1,2.368614E-1,-2.2637643E-2,-2.5092083E-1,3.850724E-1,-1.00671895E-1,3.7623483E-1,3.338176E-1,1.290497E-1,3.94624E-1,-8.797786E-2,2.93227E-1,-2.5515977E-1,-1.5047495E-1,1.3274315E-1,4.040673E-1,-2.7800152E-1,2.1565849E-1],"categories":[],"categories_nodes":[],"categories_segments":[],"categories_sizes":[],"default_left":[1,1,1,1,1,1,1,0,0,1,1,1,1,1,1,0,0,0,0,0,0,0,0,0,0,0,0],"id":2,"left_children":[1,3,5,7,9,11,13,-1,-1,15,17,19,21,23,25,-1,-1,-1,-1,-1,-1,-1,-1,-1,-1,-1,-1],"loss_changes":[1.56567E2,9.4693375E-1,3.5294983E1,9.7602285E-2,4.9547577E-1,4.6191406E0,7.7022743E-1,0E0,0E0,9.608841E-2,7.6548934E-1,1.9245543E0,1.5553131E0,3.9210987E-1,2.843324E-1,0E0,0E0,0E0,0E0,0E0,0E0,0E0,0E0,0E0,0E0,0E0,0E0],"parents":[2147483647,0,0,1,1,2,2,3,3,4,4,5,5,6,6,9,9,10,10,11,11,12,12,13,13,14,14],"right_children":[2,4,6,8,10,12,14,-1,-1,16,18,20,22,24,26,-1,-1,-1,-1,-1,-1,-1,-1,-1,-1,-1,-1],"split_conditions":[1E2,-9.728098E1,3.365E2,-9.766887E1,9.65E1,1.265E2,-9.0746414E1,2.7772399E-2,-5.8070883E-2,-9.4171646E1,-9.293869E1,-9.124855E1,3.2E2,3.415E2,-9.0272446E1,1.12870455E-1,1.0014529E-1,3.871491E-2,1.183872E-1,-2.6393358E-2,8.7968096E-2,-7.6547936E-2,-4.5142487E-2,3.9822947E-2,1.21220194E-1,-8.340046E-2,6.469755E-2],"split_indices":[2,4,2,4,2,2,4,0,0,4,4,4,2,2,4,0,0,0,0,0,0,0,0,0,0,0,0],"split_type":[0,0,0,0,0,0,0,0,0,0,0,0,0,0,0,0,0,0,0,0,0,0,0,0,0,0,0],"sum_hessian":[4.471E3,5.43E2,3.928E3,4E0,5.39E2,3.833E3,9.5E1,1E0,3E0,4.92E2,4.7E1,9.1E1,3.742E3,9.2E1,3E0,2.42E2,2.5E2,2.9E1,1.8E1,7.6E1,1.5E1,3.589E3,1.53E2,7E0,8.5E1,2E0,1E0],"tree_param":{"num_deleted":"0","num_feature":"5","num_nodes":"27","size_leaf_vector":"0"}},{"base_weights":[-1.0881698E-1,-1.4203916E-1,-6.585312E-2,-1.4992858E-1,-1.05614275E-1,-1.0668373E-1,-5.3753603E-2,5.8710307E-2,-1.5026222E-1,-1.07266665E-1,3.173286E-1,-1.2920894E-1,-7.668106E-2,-4.2098746E-2,-8.901309E-2,-1.5109472E-1,-7.9579584E-2,-1.295259E-1,-8.65401E-2,-1.7880891E-1,-1.1720696E-1,-4.7005262E-2,-1.2659326E-1,2.2485831E-1,-4.3249846E-2,-9.2346326E-2,2.3989739E-1],"categories":[],"categories_nodes":[],"categories_segments":[],"categories_sizes":[],"default_left":[1,1,1,1,1,1,1,0,1,1,0,1,1,1,1,0,0,0,0,0,0,0,0,0,0,0,0],"id":3,"left_children":[1,3,5,7,9,11,13,-1,15,17,-1,19,21,23,25,-1,-1,-1,-1,-1,-1,-1,-1,-1,-1,-1,-1],"loss_changes":[6.3280945E0,7.034569E-1,9.516964E-1,1.5186691E-1,3.478303E-1,2.888031E-1,6.1143637E-1,0E0,1.0872269E-1,1.9547844E-1,0E0,1.2846231E-1,2.7843678E-1,3.5604632E-1,4.2889357E-1,0E0,0E0,0E0,0E0,0E0,0E0,0E0,0E0,0E0,0E0,0E0,0E0],"parents":[2147483647,0,0,1,1,2,2,3,3,4,4,5,5,6,6,8,8,9,9,11,11,12,12,13,13,14,14],"right_children":[2,4,6,8,10,12,14,-1,16,18,-1,20,22,24,26,-1,-1,-1,-1,-1,-1,-1,-1,-1,-1,-1,-1],"split_conditions":[2.0215E3,-9.217117E1,4.5193985E1,-9.766887E1,4.9229668E1,-9.380087E1,-9.2301346E1,1.7613092E-2,4.9609924E1,4.800409E1,9.519859E-2,4.3834435E1,-9.306526E1,4.5226685E1,-8.812654E1,-4.5328416E-2,-2.3873877E-2,-3.8857773E-2,-2.5962032E-2,-5.3642675E-2,-3.516209E-2,-1.4101579E-2,-3.797798E-2,6.74575E-2,-1.2974954E-2,-2.7703898E-2,7.196922E-2],"split_indices":[0,4,3,4,3,4,4,0,3,3,0,3,4,3,4,0,0,0,0,0,0,0,0,0,0,0,0],"split_type":[0,0,0,0,0,0,0,0,0,0,0,0,0,0,0,0,0,0,0,0,0,0,0,0,0,0,0],"sum_hessian":[4.439E3,2.502E3,1.937E3,2.054E3,4.48E2,4.41E2,1.496E3,3E0,2.051E3,4.47E2,1E0,2.5E2,1.91E2,1.126E3,3.7E2,2.026E3,2.5E1,2.13E2,2.34E2,4.6E1,2.04E2,1.21E2,7E1,4E0,1.122E3,3.67E2,3E0],"tree_param":{"num_deleted":"0","num_feature":"5","num_nodes":"27","size_leaf_vector":"0"}},{"base_weights":[-7.448294E-2,2.5576386E-1,-1.2587136E-1,1.2890181E-1,2.925468E-1,-1.376807E-1,3.3769497E-1,2.4624157E-1,-1.9805919E-1,6.945315E-2,2.9335353E-1,-1.510356E-2,-1.4106034E-1,3.511846E-1,2.5898015E-1,1.4602157E-1,2.674242E-1,-8.763924E-2,-3.0974472E-1,1.6476792E-1,-6.0588196E-2,3.011744E-1,2.5955826E-1,-2.4118535E-1,2.594021E-1,-1.4681958E-1,-7.769953E-2,-1.8505347E-1,2.9598528E-1],"categories":[],"categories_nodes":[],"categories_segments":[],"categories_sizes":[],"default_left":[1,1,1,1,1,1,1,1,1,1,1,1,1,0,1,0,0,0,0,0,0,0,0,0,0,0,0,0,0],"id":4,"left_children":[1,3,5,7,9,11,13,15,17,19,21,23,25,-1,27,-1,-1,-1,-1,-1,-1,-1,-1,-1,-1,-1,-1,-1,-1],"loss_changes":[7.636711E1,2.790104E0,2.135838E1,5.343212E0,6.403732E-2,1.5708389E0,1.2046814E-2,1.7748833E-1,4.291495E-1,4.7167573E-2,4.525757E-2,6.454819E0,1.336937E0,0E0,3.5054052E-1,0E0,0E0,0E0,0E0,0E0,0E0,0E0,0E0,0E0,0E0,0E0,0E0,0E0,0E0],"parents":[2147483647,0,0,1,1,2,2,3,3,4,4,5,5,6,6,7,7,8,8,9,9,10,10,11,11,12,12,14,14],"right_children":[2,4,6,8,10,12,14,16,18,20,22,24,26,-1,28,-1,-1,-1,-1,-1,-1,-1,-1,-1,-1,-1,-1,-1,-1],"split_conditions":[1E2,4.495265E1,3.39E2,7.55E1,-9.678313E1,1.265E2,4.806362E1,1.25E1,9.15E1,4.7E1,4.8313606E1,4.692031E1,2.965E2,1.0535539E-1,4.8066338E1,4.3806475E-2,8.022726E-2,-2.6291775E-2,-9.292342E-2,4.9430378E-2,-1.8176459E-2,9.035233E-2,7.786748E-2,-7.2355606E-2,7.782063E-2,-4.4045873E-2,-2.3309859E-2,-5.551604E-2,8.879559E-2],"split_indices":[2,3,2,2,4,2,3,2,2,2,3,3,2,0,3,0,0,0,0,0,0,0,0,0,0,0,0,0,0],"split_type":[0,0,0,0,0,0,0,0,0,0,0,0,0,0,0,0,0,0,0,0,0,0,0,0,0,0,0,0,0],"sum_hessian":[4.497E3,6.05E2,3.892E3,1.37E2,4.68E2,3.796E3,9.6E1,1.01E2,3.6E1,2E0,4.66E2,1.02E2,3.694E3,7.9E1,1.7E1,1.9E1,8.2E1,1.9E1,1.7E1,1E0,1E0,3.72E2,9.4E1,5.6E1,4.6E1,3.385E3,3.09E2,1E0,1.6E1],"tree_param":{"num_deleted":"0","num_feature":"5","num_nodes":"29","size_leaf_vector":"0"}},{"base_weights":[-5.2805252E-2,1.6348001E-1,-8.8922605E-2,1.7839675E-1,4.3132823E-2,-9.630695E-2,2.1704952E-1,1.9543271E-1,1.4025566E-1,-1.2273162E-1,1.218851E-1,-6.8374835E-2,-1.4392588E-1,2.2691743E-1,-3.404651E-1,1.7685488E-1,2.0351616E-1,1.2364941E-1,1.4760551E-1,-4.7358345E-2,-2.2351837E-1,6.712649E-2,2.242326E-1,-6.764981E-2,-2.0683548E-1,-1.343304E-1,-1.6809674E-1,1.9710018E-1,2.4549E-1],"categories":[],"categories_nodes":[],"categories_segments":[],"categories_sizes":[],"default_left":[1,1,1,1,1,1,1,1,1,1,1,1,1,1,0,0,0,0,0,0,0,0,0,0,0,0,0,0,0],"id":5,"left_children":[1,3,5,7,9,11,13,15,17,19,21,23,25,27,-1,-1,-1,-1,-1,-1,-1,-1,-1,-1,-1,-1,-1,-1,-1],"loss_changes":[3.5479435E1,1.1591759E0,8.812246E0,3.4815788E-1,9.684999E-1,5.044529E0,5.833955E-1,2.3625374E-2,3.962517E-3,1.7173359E-1,2.6516837E-1,2.2663498E-1,3.03051E-1,2.0079613E-3,0E0,0E0,0E0,0E0,0E0,0E0,0E0,0E0,0E0,0E0,0E0,0E0,0E0,0E0,0E0],"parents":[2147483647,0,0,1,1,2,2,3,3,4,4,5,5,6,6,7,7,8,8,9,9,10,10,11,11,12,12,13,13],"right_children":[2,4,6,8,10,12,14,16,18,20,22,24,26,28,-1,-1,-1,-1,-1,-1,-1,-1,-1,-1,-1,-1,-1,-1,-1],"split_conditions":[1.25E2,1E2,3.39E2,7.85E1,1.14E2,2.0215E3,3.59E2,1.05E1,8.65E1,1.1E2,1.175E2,1.15E1,2.355E2,3.49E2,-1.0213953E-1,5.3056467E-2,6.1054848E-2,3.7094824E-2,4.4281654E-2,-1.4207504E-2,-6.7055516E-2,2.0137947E-2,6.726978E-2,-2.0294944E-2,-6.2050644E-2,-4.0299125E-2,-5.0429024E-2,5.9130054E-2,7.3647E-2],"split_indices":[2,2,2,2,2,0,2,2,2,2,2,1,2,2,0,0,0,0,0,0,0,0,0,0,0,0,0,0,0],"split_type":[0,0,0,0,0,0,0,0,0,0,0,0,0,0,0,0,0,0,0,0,0,0,0,0,0,0,0,0,0],"sum_hessian":[4.539E3,6.49E2,3.89E3,5.77E2,7.2E1,3.799E3,9.1E1,3.96E2,1.81E2,2.3E1,4.9E1,2.396E3,1.403E3,9E1,1E0,1.27E2,2.69E2,6.1E1,1.2E2,1.4E1,9E0,3.3E1,1.6E1,2.385E3,1.1E1,1.009E3,3.94E2,3.9E1,5.1E1],"tree_param":{"num_deleted":"0","num_feature":"5","num_nodes":"29","size_leaf_vector":"0"}},{"base_weights":[-3.725973E-2,-5.5716634E-2,-3.3869196E-2,-1.4402252E-1,-5.4210648E-2,-4.30968E-2,-2.2442967E-2,-6.676609E-2,-1.7863105E-1,-2.3065161E-2,-5.7454396E-2,-4.197721E-2,-1.2400717E-1,-2.7066203E-2,2.8147427E-2,1.8948412E-3,-7.664111E-2,-5.9405383E-2,7.453625E-4,-4.2443953E-2,2.0877302E-1,-1.4190115E-1,-8.345276E-2,-2.3089314E-2,-4.375299E-2,1.8354405E-1,2.650843E-3],"categories":[],"categories_nodes":[],"categories_segments":[],"categories_sizes":[],"default_left":[1,1,1,1,1,1,1,0,0,1,1,1,1,1,1,0,0,0,0,0,0,0,0,0,0,0,0],"id":6,"left_children":[1,3,5,7,9,11,13,-1,-1,15,17,19,21,23,25,-1,-1,-1,-1,-1,-1,-1,-1,-1,-1,-1,-1],"loss_changes":[2.7777767E-1,8.4219456E-2,3.9737272E-1,1.748456E-2,6.757617E-2,1.8402886E-1,3.9603823E-1,0E0,0E0,8.8404104E-2,7.010269E-2,2.501893E-1,8.477002E-3,1.0178363E-1,5.621293E-1,0E0,0E0,0E0,0E0,0E0,0E0,0E0,0E0,0E0,0E0,0E0,0E0],"parents":[2147483647,0,0,1,1,2,2,3,3,4,4,5,5,6,6,9,9,10,10,11,11,12,12,13,13,14,14],"right_children":[2,4,6,8,10,12,14,-1,-1,16,18,20,22,24,26,-1,-1,-1,-1,-1,-1,-1,-1,-1,-1,-1,-1],"split_conditions":[4.477852E1,4.30665E1,2.0215E3,2.0215E3,4.3509598E1,-9.005376E1,-9.114322E1,-2.0029828E-2,-5.3589318E-2,-9.345098E1,-9.12853E1,-9.009274E1,4.8105568E1,-9.256587E1,4.784046E1,5.684524E-4,-2.2992335E-2,-1.7821616E-2,2.2360876E-4,-1.2733187E-2,6.2631905E-2,-4.2570345E-2,-2.503583E-2,-6.9267945E-3,-1.3125897E-2,5.5063218E-2,7.952529E-4],"split_indices":[3,3,0,0,3,4,4,0,0,4,4,4,3,4,3,0,0,0,0,0,0,0,0,0,0,0,0],"split_type":[0,0,0,0,0,0,0,0,0,0,0,0,0,0,0,0,0,0,0,0,0,0,0,0,0,0,0],"sum_hessian":[4.468E3,6.91E2,3.777E3,1E1,6.81E2,2.088E3,1.689E3,4E0,6E0,6.5E1,6.16E2,2.061E3,2.7E1,1.548E3,1.41E2,4.5E1,2E1,5.96E2,2E1,2.058E3,3E0,1.7E1,1E1,1.252E3,2.96E2,1.9E1,1.22E2],"tree_param":{"num_deleted":"0","num_feature":"5","num_nodes":"27","size_leaf_vector":"0"}},{"base_weights":[-2.7892198E-2,1.2151295E-1,-5.3178523E-2,-2.0164859E-2,1.4595036E-1,-5.9294865E-2,1.5300414E-1,9.127469E-2,-2.2892508E-1,9.792E-2,1.573188E-1,-3.8917333E-2,-9.346916E-2,-1.4864981E-1,1.6009808E-1,1.20620035E-1,-7.338308E-2,-2.5377217E-1,-7.481786E-2,1.5220642E-1,-9.390055E-2,1.499552E-1,1.7518832E-1,-3.2197352E-2,-4.7405712E-2,-3.2821067E-2,-1.0266473E-1,6.713495E-2,1.6700186E-1],"categories":[],"categories_nodes":[],"categories_segments":[],"categories_sizes":[],"default_left":[1,1,1,1,1,1,1,1,1,1,1,1,1,0,1,0,0,0,0,0,0,0,0,0,0,0,0,0,0],"id":7,"left_children":[1,3,5,7,9,11,13,15,17,19,21,23,25,-1,27,-1,-1,-1,-1,-1,-1,-1,-1,-1,-1,-1,-1,-1,-1],"loss_changes":[1.6519693E1,2.194541E0,4.724263E0,2.2077248E0,2.7945042E-1,2.5256433E0,2.5490952E-1,3.0843157E-1,1.0737407E-1,1.118097E0,3.0968666E-2,1.2835765E-1,7.5286293E-1,0E0,5.6818724E-2,0E0,0E0,0E0,0E0,0E0,0E0,0E0,0E0,0E0,0E0,0E0,0E0,0E0,0E0],"parents":[2147483647,0,0,1,1,2,2,3,3,4,4,5,5,6,6,7,7,8,8,9,9,10,10,11,11,12,12,14,14],"right_children":[2,4,6,8,10,12,14,16,18,20,22,24,26,-1,28,-1,-1,-1,-1,-1,-1,-1,-1,-1,-1,-1,-1,-1,-1],"split_conditions":[4.5E0,4.4340446E1,1.15E1,3.5E0,4.537522E1,2.0215E3,4.3631256E1,4.4295723E1,4.4274567E1,3.5E0,3.5E0,8.5E0,5.5E0,-4.4594944E-2,4.4107773E1,3.6186013E-2,-2.2014923E-2,-7.613166E-2,-2.2445358E-2,4.5661926E-2,-2.8170165E-2,4.498656E-2,5.2556496E-2,-9.6592065E-3,-1.4221714E-2,-9.84632E-3,-3.079942E-2,2.0140484E-2,5.010056E-2],"split_indices":[1,3,1,1,3,0,3,3,3,1,1,1,1,0,3,0,0,0,0,0,0,0,0,0,0,0,0,0,0],"split_type":[0,0,0,0,0,0,0,0,0,0,0,0,0,0,0,0,0,0,0,0,0,0,0,0,0,0,0,0,0],"sum_hessian":[4.37E3,6.32E2,3.738E3,9.3E1,5.39E2,3.631E3,1.07E2,6.1E1,3.2E1,1.05E2,4.34E2,2.276E3,1.355E3,2E0,1.05E2,5.2E1,9E0,2.7E1,5E0,8.2E1,2.3E1,3.14E2,1.2E2,1.273E3,1.003E3,1.79E2,1.176E3,8E0,9.7E1],"tree_param":{"num_deleted":"0","num_feature":"5","num_nodes":"29","size_leaf_vector":"0"}},{"base_weights":[-1.3995569E-2,8.9961596E-2,-3.235481E-2,8.4572874E-2,2.4704428E-1,-4.0302858E-2,1.0067685E-1,9.120423E-2,-6.2404152E-2,1.2722974E-1,4.059731E-1,-3.4667663E-2,-4.9708057E-2,4.54538E-2,2.2911453E-1,1.7187545E-1,8.716658E-2,-2.4867558E-1,8.370954E-2,8.115617E-2,1.6170958E-1,-4.9587034E-2,-2.546024E-2,-3.6827065E-3,-5.2133225E-2,-6.0647782E-2,1.430296E-1,3.7731808E-1,1.1388259E-1],"categories":[],"categories_nodes":[],"categories_segments":[],"categories_sizes":[],"default_left":[1,1,1,1,1,1,1,1,1,1,0,1,1,1,1,0,0,0,0,0,0,0,0,0,0,0,0,0,0],"id":8,"left_children":[1,3,5,7,9,11,13,15,17,19,-1,21,23,25,27,-1,-1,-1,-1,-1,-1,-1,-1,-1,-1,-1,-1,-1,-1],"loss_changes":[8.633485E0,5.5386305E-1,4.0684795E0,6.470165E-1,3.6727178E-1,1.9056177E-1,1.5287061E0,1.902237E-1,8.101039E-1,9.116799E-3,0E0,3.108399E-1,1.5127516E-1,1.5926752E0,1.0670857E0,0E0,0E0,0E0,0E0,0E0,0E0,0E0,0E0,0E0,0E0,0E0,0E0,0E0,0E0],"parents":[2147483647,0,0,1,1,2,2,3,3,4,4,5,5,6,6,7,7,8,8,9,9,11,11,12,12,13,13,14,14],"right_children":[2,4,6,8,10,12,14,16,18,20,-1,22,24,26,28,-1,-1,-1,-1,-1,-1,-1,-1,-1,-1,-1,-1,-1,-1],"split_conditions":[1.265E2,-9.089691E1,3.28E2,1.245E2,1.245E2,2.395E2,-9.293805E1,-9.583104E1,-9.2314835E1,-9.024457E1,1.2179194E-1,-9.4384056E1,-9.597051E1,3.39E2,1.15E1,5.1562637E-2,2.6149975E-2,-7.460268E-2,2.5112862E-2,2.4346853E-2,4.8512876E-2,-1.48761105E-2,-7.638072E-3,-1.104812E-3,-1.5639968E-2,-1.8194335E-2,4.290888E-2,1.1319543E-1,3.416478E-2],"split_indices":[2,4,2,2,2,2,4,4,4,4,0,4,4,2,1,0,0,0,0,0,0,0,0,0,0,0,0,0,0],"split_type":[0,0,0,0,0,0,0,0,0,0,0,0,0,0,0,0,0,0,0,0,0,0,0,0,0,0,0,0,0],"sum_hessian":[4.521E3,6.78E2,3.843E3,6.57E2,2.1E1,3.627E3,2.16E2,6.29E2,2.8E1,1.3E1,8E0,2.271E3,1.356E3,1.52E2,6.4E1,2.8E1,6.01E2,1.2E1,1.6E1,7E0,6E0,8.65E2,1.406E3,6.8E1,1.288E3,7.3E1,7.9E1,2.7E1,3.7E1],"tree_param":{"num_deleted":"0","num_feature":"5","num_nodes":"29","size_leaf_vector":"0"}},{"base_weights":[-1.6139662E-2,7.0549205E-2,-2.9604077E-2,-2.9507447E-2,8.5654415E-2,-1.5496315E-2,-5.5397082E-2,5.2478276E-2,-2.054163E-1,2.0277718E-1,8.339299E-2,-1.893918E-2,5.6604084E-2,-6.568334E-2,-3.263019E-2,8.894027E-2,-2.538684E-2,2.010418E-2,8.5695654E-2,-2.734027E-2,-1.1534259E-2,-5.881714E-2,8.7092906E-2,-4.3499574E-2,-7.5045064E-2,9.552226E-2,-5.0650023E-2],"categories":[],"categories_nodes":[],"categories_segments":[],"categories_sizes":[],"default_left":[1,1,1,1,1,1,1,1,0,0,1,1,1,1,1,0,0,0,0,0,0,0,0,0,0,0,0],"id":9,"left_children":[1,3,5,7,9,11,13,15,-1,-1,17,19,21,23,25,-1,-1,-1,-1,-1,-1,-1,-1,-1,-1,-1,-1],"loss_changes":[5.1133227E0,8.927283E-1,1.3786163E0,1.1356971E0,1.18700504E-1,6.097369E-1,3.11666E-1,1.5557025E-1,0E0,0E0,7.172656E-2,1.4531684E-1,3.9925694E-1,1.8821526E-1,9.724289E-1,0E0,0E0,0E0,0E0,0E0,0E0,0E0,0E0,0E0,0E0,0E0,0E0],"parents":[2147483647,0,0,1,1,2,2,3,3,4,4,5,5,6,6,7,7,10,10,11,11,12,12,13,13,14,14],"right_children":[2,4,6,8,10,12,14,16,-1,-1,18,20,22,24,26,-1,-1,-1,-1,-1,-1,-1,-1,-1,-1,-1,-1],"split_conditions":[4.5E0,4.4314972E1,2.0215E3,3.5E0,4.4340446E1,1.15E1,4.7686897E1,2.5E0,-6.1624896E-2,6.0833156E-2,4.462598E1,4.6738556E1,4.508612E1,4.51504E1,5.5E0,2.6682083E-2,-7.6160524E-3,6.031254E-3,2.5708698E-2,-8.202082E-3,-3.4602778E-3,-1.7645143E-2,2.6127873E-2,-1.3049873E-2,-2.251352E-2,2.865668E-2,-1.5195007E-2],"split_indices":[1,3,0,1,3,1,3,1,0,0,3,3,3,3,1,0,0,0,0,0,0,0,0,0,0,0,0],"split_type":[0,0,0,0,0,0,0,0,0,0,0,0,0,0,0,0,0,0,0,0,0,0,0,0,0,0,0],"sum_hessian":[4.378E3,5.88E2,3.79E3,7.7E1,5.11E2,2.451E3,1.339E3,5.3E1,2.4E1,8E0,5.03E2,2.34E3,1.11E2,9.21E2,4.18E2,3.6E1,1.7E1,1.8E1,4.85E2,1.095E3,1.245E3,2.3E1,8.8E1,2.75E2,6.46E2,5.1E1,3.67E2],"tree_param":{"num_deleted":"0","num_feature":"5","num_nodes":"27","size_leaf_vector":"0"}},{"base_weights":[-8.035775E-3,4.8785977E-2,-1.496992E-2,5.4947667E-2,3.267806E-2,-5.426103E-3,-3.0985497E-2,6.7383215E-2,4.78422E-2,9.029282E-3,6.1218724E-2,-7.326255E-3,3.0736348E-2,-3.4874167E-2,8.221894E-3,1.4821249E-1,6.550582E-2,4.167839E-2,6.250419E-2,2.8759135E-2,-2.2265722E-1,8.6276524E-2,4.1420903E-2,-9.132337E-3,2.2926392E-2,5.7345618E-2,-1.3511526E-2,-2.5903983E-2,-4.6195395E-2,1.0666183E-1,-1.3330655E-2],"categories":[],"categories_nodes":[],"categories_segments":[],"categories_sizes":[],"default_left":[1,1,1,1,1,1,1,1,1,1,1,1,1,1,1,0,0,0,0,0,0,0,0,0,0,0,0,0,0,0,0],"id":10,"left_children":[1,3,5,7,9,11,13,15,17,19,21,23,25,27,29,-1,-1,-1,-1,-1,-1,-1,-1,-1,-1,-1,-1,-1,-1,-1,-1],"loss_changes":[1.7351635E0,4.5746088E-2,5.996143E-1,2.7260661E-2,9.056574E-2,1.6926199E-1,2.2364736E-1,8.9562535E-3,1.7548203E-2,3.49239E-1,2.6687846E-2,1.2795481E-1,1.4559545E-1,1.3417411E-1,2.8359887E-1,0E0,0E0,0E0,0E0,0E0,0E0,0E0,0E0,0E0,0E0,0E0,0E0,0E0,0E0,0E0,0E0],"parents":[2147483647,0,0,1,1,2,2,3,3,4,4,5,5,6,6,7,7,8,8,9,9,10,10,11,11,12,12,13,13,14,14],"right_children":[2,4,6,8,10,12,14,16,18,20,22,24,26,28,30,-1,-1,-1,-1,-1,-1,-1,-1,-1,-1,-1,-1,-1,-1,-1,-1],"split_conditions":[3.5E0,2.5E0,2.0215E3,-9.461812E1,-9.3595E1,1.15E1,-9.1290924E1,-9.741319E1,1.5E0,-9.366182E1,-9.298506E1,-9.100308E1,-9.295976E1,-9.390517E1,5.5E0,4.446375E-2,1.9651746E-2,1.2503518E-2,1.8751256E-2,8.627741E-3,-6.679717E-2,2.5882958E-2,1.2426271E-2,-2.7397012E-3,6.877918E-3,1.7203687E-2,-4.053458E-3,-7.7711954E-3,-1.3858619E-2,3.199855E-2,-3.999197E-3],"split_indices":[1,1,0,4,4,1,4,4,1,4,4,4,4,4,1,0,0,0,0,0,0,0,0,0,0,0,0,0,0,0,0],"split_type":[0,0,0,0,0,0,0,0,0,0,0,0,0,0,0,0,0,0,0,0,0,0,0,0,0,0,0,0,0,0,0],"sum_hessian":[4.401E3,4.78E2,3.923E3,3.44E2,1.34E2,2.459E3,1.464E3,1.22E2,2.22E2,7.4E1,6E1,2.337E3,1.22E2,1.332E3,1.32E2,1E0,1.21E2,1.59E2,6.3E1,6.9E1,5E0,2.5E1,3.5E1,2.206E3,1.31E2,7.6E1,4.6E1,7.45E2,5.87E2,2.3E1,1.09E2],"tree_param":{"num_deleted":"0","num_feature":"5","num_nodes":"31","size_leaf_vector":"0"}},{"base_weights":[-6.5741297E-3,3.8235486E-2,-1.2997074E-2,-1.4261572E-2,4.9881432E-2,-1.45235555E-2,5.9119932E-2,5.5233505E-2,-1.8057437E-1,-2.6836845E-1,5.1182136E-2,-8.088037E-2,-1.3483378E-2,-2.7027786E-1,8.001295E-2,6.0172047E-2,-1.4770153E-1,1.2871754E-1,-2.1970746E-1,4.130287E-2,9.448655E-2,-2.2956438E-1,1.2456509E-1,8.5458905E-2,-1.49391005E-2,5.485317E-2,-3.652739E-1,6.83982E-2,2.3126267E-1],"categories":[],"categories_nodes":[],"categories_segments":[],"categories_sizes":[],"default_left":[1,1,1,1,1,1,1,1,1,0,1,1,1,1,1,0,0,0,0,0,0,0,0,0,0,0,0,0,0],"id":11,"left_children":[1,3,5,7,9,11,13,15,17,-1,19,21,23,25,27,-1,-1,-1,-1,-1,-1,-1,-1,-1,-1,-1,-1,-1,-1],"loss_changes":[1.2671472E0,3.3819193E-1,4.246871E-1,1.1773238E0,2.0084083E-1,2.591946E-1,5.7219464E-1,8.104615E-2,3.913867E-1,0E0,1.8904233E-1,1.8002901E0,5.362134E-1,1.7446727E-1,1.17693335E-1,0E0,0E0,0E0,0E0,0E0,0E0,0E0,0E0,0E0,0E0,0E0,0E0,0E0,0E0],"parents":[2147483647,0,0,1,1,2,2,3,3,4,4,5,5,6,6,7,7,8,8,10,10,11,11,12,12,13,13,14,14],"right_children":[2,4,6,8,10,12,14,16,18,-1,20,22,24,26,28,-1,-1,-1,-1,-1,-1,-1,-1,-1,-1,-1,-1,-1,-1],"split_conditions":[1E2,4.4691475E1,3.44E2,7.3E1,-9.766887E1,1.175E2,4.4274437E1,4.4667847E1,-9.592484E1,-8.051054E-2,8.65E1,4.6439995E1,1.265E2,3.565E2,3.59E2,1.8051615E-2,-4.431046E-2,3.8615264E-2,-6.591224E-2,1.2390862E-2,2.8345967E-2,-6.8869315E-2,3.7369527E-2,2.5637673E-2,-4.4817305E-3,1.6455952E-2,-1.0958217E-1,2.0519461E-2,6.93788E-2],"split_indices":[2,3,2,2,4,2,3,3,4,0,2,3,2,2,2,0,0,0,0,0,0,0,0,0,0,0,0,0,0],"split_type":[0,0,0,0,0,0,0,0,0,0,0,0,0,0,0,0,0,0,0,0,0,0,0,0,0,0,0,0,0],"sum_hessian":[4.4E3,5.51E2,3.849E3,1E2,4.51E2,3.77E3,7.9E1,7.1E1,2.9E1,1E0,4.5E2,5.7E1,3.713E3,4E0,7.5E1,7E1,1E0,3E0,2.6E1,3.68E2,8.2E1,3.3E1,2.4E1,5.3E1,3.66E3,1E0,3E0,7.1E1,4E0],"tree_param":{"num_deleted":"0","num_feature":"5","num_nodes":"29","size_leaf_vector":"0"}},{"base_weights":[1.1844861E-3,8.924941E-3,-8.5636135E-3,7.6771188E-3,7.5851955E-2,-8.141336E-3,-9.364073E-2,6.25808E-3,5.4005705E-2,2.0496996E-1,-1.9084187E-2,-9.593419E-2,-7.747514E-3,2.5408389E-2,4.3890476E-3,1.92362E-2,1.9180132E-1,2.9777464E-1,2.8541114E-2,4.0655616E-1,-4.990628E-2,-1.0330666E-1,-1.847721E-2,-9.604613E-3,9.74895E-3],"categories":[],"categories_nodes":[],"categories_segments":[],"categories_sizes":[],"default_left":[1,1,1,1,1,1,0,1,1,1,1,1,1,0,0,0,0,0,0,0,0,0,0,0,0],"id":12,"left_children":[1,3,5,7,9,11,-1,13,15,17,19,21,23,-1,-1,-1,-1,-1,-1,-1,-1,-1,-1,-1,-1],"loss_changes":[3.484509E-1,2.1438019E-1,7.267071E-2,1.6585796E-1,5.8003604E-1,6.961636E-2,0E0,8.772338E-2,3.5564187E-1,3.1896973E-1,3.8762525E-1,3.230624E-3,6.595628E-2,0E0,0E0,0E0,0E0,0E0,0E0,0E0,0E0,0E0,0E0,0E0,0E0],"parents":[2147483647,0,0,1,1,2,2,3,3,4,4,5,5,7,7,8,8,9,9,10,10,11,11,12,12],"right_children":[2,4,6,8,10,12,-1,14,16,18,20,22,24,-1,-1,-1,-1,-1,-1,-1,-1,-1,-1,-1,-1],"split_conditions":[2.0215E3,-9.025535E1,-8.84777E1,4.9387947E1,-8.979096E1,-9.728098E1,-2.809222E-2,4.41726E1,-9.351912E1,4.8104424E1,4.761502E1,4.487545E1,-9.133696E1,7.622517E-3,1.3167143E-3,5.7708602E-3,5.7540398E-2,8.9332394E-2,8.562335E-3,1.21966854E-1,-1.4971885E-2,-3.0992E-2,-5.5431635E-3,-2.881384E-3,2.924685E-3],"split_indices":[0,4,4,3,4,4,0,3,4,3,3,3,4,0,0,0,0,0,0,0,0,0,0,0,0],"split_type":[0,0,0,0,0,0,0,0,0,0,0,0,0,0,0,0,0,0,0,0,0,0,0,0,0],"sum_hessian":[4.616E3,2.573E3,2.043E3,2.527E3,4.6E1,2.034E3,9E0,2.453E3,7.4E1,1.9E1,2.7E1,8E0,2.026E3,2.17E2,2.236E3,6E1,1.4E1,1.2E1,7E0,1E0,2.6E1,7E0,1E0,1.832E3,1.94E2],"tree_param":{"num_deleted":"0","num_feature":"5","num_nodes":"25","size_leaf_vector":"0"}},{"base_weights":[-3.744819E-3,3.0787282E-2,-9.417807E-3,-3.04554E-2,3.6845755E-2,-2.0715054E-3,-2.3029808E-2,2.9655514E-2,-1.1183893E-1,1.3106766E-1,3.3660386E-2,-4.0614083E-3,4.9251396E-2,3.8864702E-2,-2.5662065E-2,4.913109E-2,-1.2382519E-1,-3.0139267E-1,-8.090711E-2,8.6832635E-2,2.6418215E-1,1.8106683E-3,3.8514983E-2,-5.505716E-3,3.138397E-2,2.4785861E-2,1.7155771E-1,2.275217E-2,6.1266925E-2,-3.131775E-2,-1.1905446E-2],"categories":[],"categories_nodes":[],"categories_segments":[],"categories_sizes":[],"default_left":[1,1,1,1,1,1,1,1,1,1,1,1,1,1,1,0,0,0,0,0,0,0,0,0,0,0,0,0,0,0,0],"id":13,"left_children":[1,3,5,7,9,11,13,15,17,19,21,23,25,27,29,-1,-1,-1,-1,-1,-1,-1,-1,-1,-1,-1,-1,-1,-1,-1,-1],"loss_changes":[8.5519826E-1,2.2968096E-1,3.7484434E-1,2.772708E-1,1.63962E-1,2.4898283E-1,2.1507704E-1,1.0472481E-1,1.1633304E-1,8.305019E-2,8.404213E-2,1.2027398E-1,2.6804614E-1,1.8097706E-2,9.7736895E-2,0E0,0E0,0E0,0E0,0E0,0E0,0E0,0E0,0E0,0E0,0E0,0E0,0E0,0E0,0E0,0E0],"parents":[2147483647,0,0,1,1,2,2,3,3,4,4,5,5,6,6,7,7,8,8,9,9,10,10,11,11,12,12,13,13,14,14],"right_children":[2,4,6,8,10,12,14,16,18,20,22,24,26,28,30,-1,-1,-1,-1,-1,-1,-1,-1,-1,-1,-1,-1,-1,-1,-1,-1],"split_conditions":[4.5E0,4.4086082E1,2.0215E3,2.5E0,4.4274437E1,4.9323296E1,4.359931E1,4.396512E1,4.3291477E1,4.425295E1,4.5020515E1,1.15E1,1.05E1,7.5E0,4.7826447E1,1.4739328E-2,-3.714756E-2,-9.04178E-2,-2.4272133E-2,2.604979E-2,7.925465E-2,5.432005E-4,1.1554495E-2,-1.6517149E-3,9.415191E-3,7.4357586E-3,5.1467314E-2,6.825651E-3,1.8380078E-2,-9.395326E-3,-3.571634E-3],"split_indices":[1,3,0,1,3,3,3,3,3,3,3,1,1,1,3,0,0,0,0,0,0,0,0,0,0,0,0,0,0,0,0],"split_type":[0,0,0,0,0,0,0,0,0,0,0,0,0,0,0,0,0,0,0,0,0,0,0,0,0,0,0,0,0,0,0],"sum_hessian":[4.363E3,6.15E2,3.748E3,5.5E1,5.6E2,2.435E3,1.313E3,3.2E1,2.3E1,1.7E1,5.43E2,2.345E3,9E1,5.3E1,1.26E3,2.9E1,3E0,2E0,2.1E1,1.4E1,3E0,7.2E1,4.71E2,2.254E3,9.1E1,7.6E1,1.4E1,3.2E1,2.1E1,8.92E2,3.68E2],"tree_param":{"num_deleted":"0","num_feature":"5","num_nodes":"31","size_leaf_vector":"0"}}]},"name":"gbtree"},"learner_model_param":{"base_score":"5E-1","boost_from_average":"1","num_class":"0","num_feature":"5","num_target":"1"},"objective":{"name":"reg:squarederror","reg_loss_param":{"scale_pos_weight":"1"}}},"version":[1,7,6]}